{
  "biases": [
    [
      -4.213218594224779,
      3.902207206093371,
      -6.4255470802578945,
      2.2018393966040204,
      -0.22162172190499485,
      -3.052612077662713
    ],
    [
      -7.411434267831487,
      2.1183332703783484,
      2.362684002954646
    ]
  ],
  "weights": [
    [
      [
        -1.5000543018867982,
        -2.9123270964851704,
        -2.522374880307196,
        2.233301410607004,
        5.077978531543211,
        5.709264215979247,
        7.745648299734719,
        -3.877468233375011,
        -3.886221110321929
      ],
      [
        0.8806024302160012,
        3.051737628028785,
        -0.3769832521421662,
        -8.910515598359874,
        -7.576731500612337,
        -2.84567285345105,
        3.220734763816787,
        -1.4965306681717325,
        2.2282819782341026
      ],
      [
        -1.8066223620408712,
        2.3671670758598604,
        0.5860159078375549,
        -0.08020804745555105,
        -6.727699063471219,
        2.2594302759058467,
        -6.6028055782009245,
        3.217462092812226,
        -5.8592930147158855
      ],
      [
        -1.1583133383422701,
        2.293802870571295,
        -4.557340049087774,
        2.4095557260354084,
        1.7061639830307793,
        0.47467188355882795,
        0.4512328428141994,
        2.0267527436152544,
        7.182753865843258
      ],
      [
        -1.6910281265774372,
        -0.3659314929349387,
        -1.63055574052871,
        -2.831181544665321,
        4.475367595095989,
        -2.144380573353879,
        -0.7287040510367218,
        -2.1564307713420394,
        2.4981085574524835
      ],
      [
        2.5122324359422246,
        3.946326262462832,
        -3.6369493554344716,
        -5.1501081897256435,
        3.286036290373543,
        3.322851099004376,
        -3.725516497711463,
        -6.689214332373518,
        0.7258066143433572
      ]
    ],
    [
      [
        -2.2245591155990643,
        7.533391623621446,
        -0.34236118436040225,
        1.4209993714648328,
        2.8406684145949006,
        -2.965582253350702
      ],
      [
        -2.98517326134848,
        0.465669969399605,
        -6.051618518192596,
        -5.26576293143679,
        -8.364131051180916,
        -2.0822776427014578
      ],
      [
        -0.1336748880660918,
        0.32405385531037545,
        3.551615128608276,
        6.811162070753939,
        4.136145021391143,
        -7.918939259228533
      ]
    ]
  ]
}