{
  "biases": [
    [
      1.0114441869630835, -1.0302863478918964,
      0.41701167595303335,
      0.5851028318139454,
      1.7751411703821696, -0.5001855050859476
    ],
    [-0.7283459169123805, -1.0158515983875345,
      1.9518743725405967
    ]
  ],
  "weights": [
    [
      [-0.05792861816081413, -0.5091220470259756,
        0.23713689299235627, -2.707066104970743,
        1.2777466707501284, -0.2502456112388875, -0.24931021655601515, -1.2279139809421058,
        1.8450658241280078
      ],
      [-0.505789954273074, -0.08815429410548312, -0.28073435992545837, -1.186021017628611,
        3.3753034471525822,
        1.2199506347862623,
        1.8333690177485376,
        1.8588313584812797,
        0.18471872370732004
      ],
      [
        0.9382415673415538,
        1.4511919696563917,
        1.0712871831714266,
        0.023573194565711775,
        1.2915141377443011, -1.7534755598997644,
        1.1130025812364779,
        0.39452637744792063,
        1.2549323322305084
      ],
      [-0.437090814024489,
        0.6327626365978207,
        0.29630573055691, -2.3177204565621916,
        1.6147405598710358, -0.7395043639610599, -0.27082175156654364,
        1.2699804152955854,
        0.7455381392799856
      ],
      [-0.26605541878286515,
        0.8307390256368548, -1.70069764590457, -0.6663677646643962, -0.24894256443976454,
        0.9003481992134159, -0.749815200928706,
        0.47853993494164493,
        1.294662961438694
      ],
      [
        0.8054306111883311,
        0.16626091075022403,
        0.3912187460994003, -0.781249475546012,
        0.19852977804345034, -0.3024951227118633,
        0.8795457517949058, -0.08092100316340897,
        0.04031828121781339
      ]
    ],
    [
      [-1.4584529892593856,
        1.0058219825073766, -1.4317638881532955,
        2.256423887264935,
        0.5595222461542717, -0.15626652003813285
      ],
      [
        1.6801921383414848, -2.0067524171189217, -0.7976797413352055,
        1.6066632815147166,
        0.6211128941928217,
        0.39594036973987823
      ],
      [
        0.671855363135939,
        1.7223242893480182,
        0.31454663857268716,
        0.8816067816770665,
        0.2692156887483236, -0.26623833377230094
      ]
    ]
  ]
}