{
  "biases": [
    [
      0.5607934425449568,
      1.3991657664357076,
      -1.706323312627576,
      0.26921004216396444,
      -2.0625389164261745,
      -2.208380594508747
    ],
    [
      0.02914268317775784,
      -2.639394868692246,
      0.6837358348555069
    ]
  ],
  "weights": [
    [
      [
        3.344369484906795,
        0.5558725611813067,
        0.8817923735893567,
        1.0300263666208922,
        -0.7245367345062764,
        0.7190256278656972,
        0.015138729427750602,
        -0.9665457008836678,
        1.8999375748587768
      ],
      [
        -1.6492256479609195,
        -0.6913301577471642,
        1.226836390226306,
        0.440291892991515,
        0.10188897330852895,
        0.9346426845124145,
        0.569810214203698,
        -0.18712378387000805,
        -0.17023858624930338
      ],
      [
        -1.9515085156926624,
        -0.922377173685752,
        -0.2766176126579518,
        -0.3487287319378001,
        -0.28862959298594126,
        0.04855894296186131,
        1.239893445167405,
        -0.4143576019231888,
        1.5841392278418303
      ],
      [
        0.7279754613614478,
        2.120661181902365,
        -0.4013250356957473,
        -0.05626521615150484,
        -0.3174906842596271,
        -0.11010678560884679,
        0.4491175221450373,
        1.7817939231395385,
        -0.4529534945144337
      ],
      [
        0.5603110162632663,
        -0.1088814146089287,
        0.9280096392026078,
        2.230969933854243,
        1.5791859355323044,
        -1.0040912317177928,
        0.8381131532957532,
        1.4531689257265679,
        1.8705253954506689
      ],
      [
        0.41644389220926425,
        0.5682838220739814,
        0.6296223226463944,
        1.9717037010038834,
        0.45535450217538254,
        -0.63298949820496,
        -0.9068550386873979,
        -0.8642499693876995,
        0.38850917076927016
      ]
    ],
    [
      [
        -1.6419465250440481,
        1.5097345002454252,
        -0.12636144699830879,
        -0.5780076014398225,
        0.38022585680768756,
        -0.9961205573169336
      ],
      [
        0.12117713532509178,
        0.8144775366603791,
        -0.547845340007062,
        -0.08074265019996596,
        1.978053426594304,
        0.7314874986324473
      ],
      [
        0.1914221105312401,
        0.6498548282993153,
        -0.5656793067016812,
        -0.6151797584573372,
        1.409720641943606,
        0.7800773072398047
      ]
    ]
  ]
}