{
  "biases": [
    [
      -1.9917697303341546,
      -0.9363363270426602,
      0.010200488396134522,
      0.7788166644859855,
      -0.8874891166972219,
      -0.3699643337875608
    ],
    [
      -0.50620026352994,
      -0.007944396948731947,
      0.7344565207639338
    ]
  ],
  "weights": [
    [
      [
        0.08313085211836038,
        -0.4565112142530769,
        -1.411404799402482,
        -0.17223989989832006,
        1.964807204372831,
        -1.6538655972726395,
        0.19832260054561412,
        -0.941226141325136,
        0.444543366248531
      ],
      [
        -0.8669696625291669,
        -0.6162870466532095,
        -0.9094556925788215,
        0.8239482081544081,
        1.2251083238138092,
        0.9190454647416023,
        -1.510375125422919,
        0.3588517764697425,
        0.9284927250063909
      ],
      [
        -1.9424536095388794,
        -0.5867774517290325,
        -0.24393999634663205,
        0.8795821515938709,
        0.5225159414065664,
        -0.04408027775298545,
        1.0133417088058685,
        0.07966408932388436,
        1.273025959054734
      ],
      [
        -4.943833643050062,
        1.0244788013869899,
        0.5701786735462637,
        2.9532909122131414,
        1.123443419452839,
        2.042858178585586,
        -1.3906160670874812,
        -2.096740011334521,
        -0.8382858235812064
      ],
      [
        1.4349114761432105,
        4.104664872711226,
        -2.1969453936472956,
        0.5253981039030053,
        0.4270943628459196,
        -0.08313992037777729,
        1.4187001724895567,
        -2.159109132422519,
        -2.1907438723335457
      ],
      [
        -2.2766049526784404,
        0.29364268194678084,
        0.014390238419045659,
        -1.4575105614582498,
        0.7222341584643044,
        -0.026431748954549694,
        -0.16030097270521004,
        -2.0732516843151445,
        0.9599335305225287
      ]
    ],
    [
      [
        2.4637253270780612,
        -0.26283760971906184,
        1.8887867342046971,
        -0.1548791275180303,
        -0.43245969137708445,
        0.13305382604512972
      ],
      [
        -0.8407661834546962,
        1.0584883786578567,
        -0.5111324525923142,
        -1.5133003842774713,
        1.0449918263846971,
        0.5870065078367325
      ],
      [
        1.1452555218089957,
        2.005899813569813,
        -0.2549463211629122,
        0.20809662209739288,
        0.15903409173524816,
        -1.1004633108993378
      ]
    ]
  ]
}