{
  "biases": [
    [
      -2.2495553780822415,
      0.818745776969188,
      0.7834972734871107,
      -0.4628330004203207,
      -1.032169072290405
    ],
    [
      -0.043388228823602826,
      0.36543137737597314,
      -0.13594412222577473
    ]
  ],
  "weights": [
    [
      [
        -0.6264986371832822,
        -0.46053208058430034,
        0.0728133962249378,
        -0.0022124200512702343,
        0.07909862802436157,
        0.36394249403056556,
        -0.6387319188061137,
        0.5838485457580116,
        -0.5234837717762142
      ],
      [
        -1.2408366843204985,
        -1.3331232601431873,
        -0.7155570356425647,
        0.7713651062141554,
        -2.0617336896301546,
        1.0059281845933514,
        -0.6427879157030431,
        0.3714216855272243,
        0.0009675549603777658
      ],
      [
        1.2182724685722295,
        -0.9775517780360885,
        0.6439579062316217,
        -1.6721028627093537,
        0.05868923294646936,
        1.900617032382915,
        -0.5501080941009149,
        1.444526408614849,
        0.016993559380745066
      ],
      [
        1.614978581014412,
        0.4909694361263032,
        1.5992204766738092,
        0.7875462215509074,
        0.09366429880583195,
        -0.11049395609911102,
        0.704292764977013,
        1.8866611402882885,
        -1.539104233174861
      ],
      [
        0.6620917023478089,
        -0.9516814061274109,
        -0.477641419356117,
        -0.4303481750545939,
        0.5028226854947114,
        0.22347761005005343,
        1.7639699410066316,
        -0.8943529796817948,
        -0.17794036714359604
      ]
    ],
    [
      [
        0.3317412738929142,
        1.2496732929636123,
        0.31585656740508694,
        -1.7294107242932895,
        -0.578813959723693
      ],
      [
        0.07366777877235746,
        -0.051598111142736554,
        -0.19569038833150812,
        1.1459886654105922,
        -0.4710464554968876
      ],
      [
        -0.43216342365278015,
        -2.2568005798055046,
        0.9400772781792195,
        0.03116910668702466,
        -0.5364191989622753
      ]
    ]
  ]
}