{
  "biases": [
    [
      -2.24707683763171,
      0.9587271730342882,
      0.8364596342297571,
      -0.652918700331255,
      -0.9227998601071645
    ],
    [
      0.048754959515834806,
      0.46624801046294334,
      0.12025897031321818
    ]
  ],
  "weights": [
    [
      [
        -0.6951543843530646,
        -0.30060824602155617,
        -0.10098119625285554,
        -0.05509097504260242,
        -0.0030216207696480354,
        0.3051724075962778,
        -0.9492568600926857,
        0.6417118303208412,
        -0.4245148086702348
      ],
      [
        -1.1936874627995724,
        -1.1706459701118221,
        -0.5364111685316393,
        0.7311357563843,
        -2.4234819700567543,
        1.0412416927387862,
        -0.45605667786659215,
        0.4827079649774308,
        -0.0524807999922842
      ],
      [
        1.1340928568662394,
        -1.1972313826644405,
        0.6988832861119434,
        -1.587818836921936,
        0.12879456621599514,
        1.706932768234524,
        -0.3600408381675483,
        1.1835052604586112,
        0.22978380136668672
      ],
      [
        1.4833778117269742,
        0.4663452510539937,
        1.6183988836580423,
        0.740248424954738,
        0.2058099487053743,
        -0.19331196572721043,
        0.7055850727172325,
        1.6769030008797359,
        -1.5495582938947323
      ],
      [
        0.8056667420688385,
        -0.7482252024695895,
        -0.387130763297034,
        -0.4367214160096812,
        0.6909866246935096,
        0.4891534964186928,
        1.7901899923201199,
        -1.1057040716271815,
        -0.09546557335182447
      ]
    ],
    [
      [
        0.36473704671496504,
        1.431888144016246,
        0.36567073622222107,
        -1.7338261503635573,
        -0.5932361989116264
      ],
      [
        -0.13484996029400897,
        0.2966813918050151,
        -0.14455477717096304,
        1.2894786598173094,
        -0.5282755999929217
      ],
      [
        -0.2771953310119503,
        -2.127786280113712,
        0.868045131464565,
        0.2011120169441405,
        -0.44325323014936224
      ]
    ]
  ]
}