{
  "biases": [
    [
      -0.34298684923974804,
      0.33943223286248736,
      1.03937795926775,
      -1.06306986307437,
      0.5358130104346663
    ],
    [
      -0.8563583343255547,
      -0.5136373711107074,
      -1.0721733788652852,
      -0.06933105181853139,
      2.1466160898868445
    ]
  ],
  "weights": [
    [
      [
        -0.03431842386232152,
        0.20029890073086526,
        0.10019320141790689,
        1.0059861994482446,
        0.06273594339527502,
        0.2789323501588036,
        0.4883995294280258,
        0.24017255381408373,
        1.3314309273886293
      ],
      [
        -1.3810095780674811,
        -0.8938082334165419,
        1.1629288200317607,
        -0.7869714570582382,
        1.251374033502018,
        1.732891103129793,
        -0.8181887530385262,
        -0.08318926683188504,
        -0.3199271521697533
      ],
      [
        -1.884649639203935,
        0.5335856532343216,
        -0.8076106163568126,
        -1.2529506112053093,
        0.06753021028517679,
        -0.11473018739134896,
        -0.8628939458587132,
        -1.5138263092963842,
        0.01617336854622734
      ],
      [
        0.4155676925653754,
        -1.697936543692974,
        -0.8577017947577114,
        0.18566886580721134,
        0.7378886087172895,
        0.2600804692648136,
        0.3995751823703052,
        0.3534838568146822,
        0.031584753216051864
      ],
      [
        -0.8221064111585155,
        0.38486185949311275,
        0.7459989884058037,
        0.8821295581471811,
        -0.5709327428404462,
        -0.45675636268120434,
        1.062802207064699,
        0.19345197729047026,
        0.2799160426508038
      ]
    ],
    [
      [
        0.8464188290947976,
        -0.26878101339855975,
        -0.40248556297731364,
        1.038046768929329,
        -0.4405142920510095
      ],
      [
        0.3126154682035689,
        1.31792382613196,
        -0.36353467473833506,
        1.777658492562584,
        1.572586813786466
      ],
      [
        -2.260040228768246,
        0.319638478621816,
        -1.6438672885635521,
        -1.2497371137900262,
        2.0032460959534233
      ],
      [
        -2.8434893303508186,
        -0.016408487267295522,
        -0.5263564294257886,
        -0.08231053212980323,
        0.16708328642735049
      ],
      [
        -0.5174195066173939,
        -0.34452324586825267,
        0.5559724359805523,
        2.92892025812941,
        -0.7773894536055415
      ]
    ]
  ]
}