{
  "biases": [
    [
      1.485349177010394,
      -1.3910002273153306,
      -0.6783564025085987,
      0.8652977297542891,
      0.5279606062640794
    ],
    [
      1.2411488353673437,
      -0.4857780375513765,
      -0.5606645898097689
    ]
  ],
  "weights": [
    [
      [
        0.9165402790377227,
        -0.4597506558338029,
        0.30208552609906286,
        0.9315214571786906,
        0.5213744576596908,
        -0.32730481816617657,
        -0.17320484329144878,
        -0.6848599935193727,
        -1.7834027876862013
      ],
      [
        -0.9945587983304829,
        0.5727979139274624,
        -0.6251361848135996,
        -0.09447146684008344,
        1.4879107403749539,
        -0.26803849002757074,
        -3.089077578679833,
        -0.36789906838281183,
        0.4487665493493378
      ],
      [
        1.4596099143700656,
        -0.6209584609893746,
        -0.43942289713773947,
        -1.1731757026535934,
        -0.2999001028815586,
        -0.9632403374723016,
        -0.8322807347064944,
        -1.4024590081014459,
        1.5035691240400453
      ],
      [
        0.2751558548475168,
        0.5376635031872656,
        0.6817772018321736,
        1.569688621525518,
        1.2393778290663877,
        -0.10437581188383614,
        -0.033662128421169925,
        0.027902582653056594,
        -1.2551582726891601
      ],
      [
        0.15272756044884975,
        -0.5992604911576647,
        -0.3902486388105203,
        0.8141844305869756,
        -0.20410696194669412,
        -0.8390020055304096,
        1.9011910027335275,
        -1.6674294681105635,
        -0.9443560251030977
      ]
    ],
    [
      [
        -0.051847898983224394,
        -2.1163188157334853,
        -1.4495208324639788,
        1.110424276280531,
        0.07162428880901403
      ],
      [
        -1.2673755681482368,
        0.4788670530730629,
        -0.4252024488367855,
        -0.3042693389941211,
        1.187400305194906
      ],
      [
        0.20973992945093212,
        0.008516708755873122,
        -0.013829782139705876,
        0.8315665010462039,
        -1.0950707357269878
      ]
    ]
  ]
}