{
  "biases": [
    [
      -1.9825321618869052,
      -1.0306213470731245,
      0.044024340528464156,
      0.5377526540241494,
      -0.8653959439805543,
      -0.08430734121999595
    ],
    [
      -0.343127495715905,
      0.04557848537792397,
      0.9307860398273731
    ]
  ],
  "weights": [
    [
      [
        0.24576050698278346,
        -0.6779582805483222,
        -1.2141309753038474,
        -0.21730758741401324,
        1.5373334065286735,
        -1.5215833440292512,
        0.2611483605414666,
        -0.8157582571865526,
        0.741115650446545
      ],
      [
        -0.9404455438960866,
        -0.5727354266991683,
        -1.084122287853276,
        0.774760134132843,
        1.1689778648969877,
        0.9560165503950009,
        -1.674859256355393,
        0.3451351468412422,
        1.0479277760742178
      ],
      [
        -1.9748897397526426,
        -0.3173009100040007,
        -0.3982576096289791,
        1.0075544530645626,
        0.5521265645699954,
        -0.1291426622894275,
        0.8167968674051982,
        -0.07077603953843553,
        1.0579517679678843
      ],
      [
        -4.829893995482236,
        1.0598120998774927,
        0.8226955434216847,
        2.6948359687805903,
        0.7772715937456303,
        2.3229492457918077,
        -1.6574132784055289,
        -2.2828307275119233,
        -0.9438276052198528
      ],
      [
        1.2089548842568503,
        4.307563267125761,
        -2.393542328792422,
        0.4210572861177344,
        0.9145031418933234,
        -0.3050507434934178,
        1.1442304381768509,
        -2.326495245873177,
        -2.1401660151437416
      ],
      [
        -2.2766049526784404,
        0.03501126607691962,
        -0.056845766177428675,
        -1.1659045021517305,
        0.48910018615091816,
        0.04274927974923304,
        -0.3574959344244489,
        -1.8456292455923924,
        0.7049340570269547
      ]
    ],
    [
      [
        2.2309438219016835,
        -0.46628014342104074,
        1.8122571563501613,
        -0.3700403977057426,
        -0.6687797224879679,
        0.03182493080144533
      ],
      [
        -0.7594283699899163,
        1.009048407654502,
        -0.4487001107773999,
        -1.4635692899860737,
        0.8989618204863856,
        0.7503882877987563
      ],
      [
        1.0143561235308105,
        2.1033481036761392,
        -0.2972306844709655,
        0.21235399582547299,
        0.2043587411299929,
        -0.9689346062972015
      ]
    ]
  ]
}