{
  "biases": [
    [
      -0.169688507424668,
      -0.49996140150958385,
      -0.9416095192543388,
      -1.4994577145653163,
      -0.7164505775305966
    ],
    [
      -0.5875774511447568,
      2.961849134519324,
      -0.39909730808379196
    ]
  ],
  "weights": [
    [
      [
        0.0674326981461601,
        1.8005015043900516,
        -0.21988677301828313,
        0.07423448386601365,
        0.36748900803219264,
        -0.2931892844836144,
        -0.9357946143159386,
        1.0358799855640595,
        0.32168720683923724
      ],
      [
        0.7714201549654928,
        0.7633051966043979,
        -1.1101763289248205,
        -0.4488895306716038,
        -0.6933145683373706,
        1.020425895826214,
        -0.2303791183821466,
        0.967097561664976,
        -0.40079403577337047
      ],
      [
        0.6057284137856567,
        -1.0831453626394625,
        1.2017043417326376,
        -0.09321071972808428,
        2.086389404484944,
        -0.6236296905052582,
        0.41511485562689365,
        1.630534845135935,
        1.1554424102395717
      ],
      [
        -0.3464482596408669,
        -0.41113943236892453,
        -2.0171531270089798,
        -1.059814299623523,
        1.4409314737117633,
        2.0065309968343112,
        0.1538431391016448,
        0.5046656719088938,
        -0.2982452974174852
      ],
      [
        0.3013214233078224,
        0.04906452028200407,
        0.010298212882704522,
        -0.885189308184487,
        -1.2015112974002349,
        -2.9600715708443297,
        -0.6973333456790064,
        0.4960552517884579,
        -0.07840616599075391
      ]
    ],
    [
      [
        0.8595236162377227,
        -0.6444590253948467,
        -0.10361276832081445,
        0.858915727655679,
        -0.7292093676246981
      ],
      [
        -0.7942755752085016,
        -0.06279311163237068,
        0.9282709056179484,
        0.7858928092653653,
        -0.3306665964017017
      ],
      [
        0.5798495386257762,
        -1.241149290799086,
        -0.028127037139042167,
        1.0844173876107273,
        -0.2749423121215708
      ]
    ]
  ]
}
